svm_type c_svc
kernel_type rbf
gamma 0.125
nr_class 13
total_sv 239
rho 0.5943108323411572 0.46888395970425145 1.1394368624060365 -0.508147656917572 0.9995368360124596 0.6629944404140852 -0.6718952059745789 0.45797520464265573 -0.021377094548953923 0.33871541006034683 -0.001606501011562735 0.18820651590052243 -0.017504995945119974 -0.40266076500718506 -0.5884876680319858 -0.31431027381476506 0.46123251617794336 -1.012943203096094 -0.22222387934149013 -0.8390048861499503 -0.10515241818966038 -0.9824610495479341 -0.5055882478375188 -0.3293752380713241 -0.8238430713999572 -0.42113182394815896 0.8547557661244038 -1.0322056787704352 -0.6691703050624225 -0.9887231069578457 -0.3679032804138338 -1.0041435060540407 -0.2704338456024175 -0.8996844291687012 -0.2891327503577057 0.48762376684719855 -0.8849034011363983 0.29976614690007564 -0.0932100859269726 0.1552439262273979 -0.13624224811792374 0.061848723417192095 1.002946822583562 0.9666854785547762 -0.939098060131073 0.6117466256278822 -0.04111407697200785 0.5464775983709842 -0.06300389021635056 0.14655416092390983 0.47653468208849764 -0.9953625798225403 0.3282761923542583 -0.20071529645185024 0.009908048544119778 -0.5296336729079485 -0.007143303993566929 -1.0582577836820246 -1.021986868614429 -1.0244921224801613 -0.5581759130688703 -1.032146989015733 -0.471228740972899 1.0409296556009864 0.9706604778766632 0.9989493637347353 0.9998375805705703 0.38048560621219735 -1.0104093860496894 -0.043989946241105735 -0.8923904307560773 -0.30735164214312694 0.7645854981109999 0.2437664270401001 0.10960441441932733 -0.96292866711281 -0.20568587152361037 0.02642871027014706
label 13 12 10 11 14 1 2 0 3 9 5 8 4
nr_sv 17 8 23 58 5 62 33 1 13 3 10 3 3
SV
0.0 0.8678043201551391 1.0 1.0 1.0 0.13360845047545397 0.0 0.2644235574060278 0.0 0.2682362699905785 0.0 0.0 1:0.101333 2:0.00690173 3:-3.01698 4:0.0751253 5:0.764326 6:0.149142 7:0.177073 8:0.00240309 
0.0 0.0 1.0 0.0 1.0 0.0 0.0 0.0 0.0 0.0 0.0 0.0 1:0.177896 2:0.00868699 3:-2.45024 4:0.061759 5:0.786213 6:0.137699 7:0.152721 8:0.00198178 
0.0 1.0 1.0 0.0 1.0 1.0 0.0 0.0 0.0 0.6998414760783165 0.0 0.0 1:0.233372 2:0.00854422 3:-2.61425 4:0.0803707 5:1.18365 6:0.30648 7:0.159078 8:0.00460979 
0.0 0.0 1.0 0.0 1.0 0.0 0.0 0.0 0.0 0.0 0.0 0.0 1:0.30541 2:0.00854337 3:-2.14644 4:0.0691593 5:0.928595 6:0.229676 7:0.330384 8:0.0194453 
0.0 0.0 1.0 0.0 1.0 0.0 0.0 0.0 0.0 0.0 0.0 0.0 1:0.19971 2:0.0107967 3:-2.42064 4:0.0830787 5:0.703031 6:0.183422 7:0.227223 8:0.00573062 
1.0 1.0 1.0 1.0 1.0 1.0 0.8359791607193838 1.0 0.9723511996128696 1.0 1.0 0.0 1:0.0955851 2:0.00428077 3:-3.06498 4:0.063298 5:1.31715 6:0.266697 7:0.244987 8:0.0127912 
0.0 0.0 1.0 0.0 1.0 0.0 0.0 0.0 0.0 0.0 0.0 0.0 1:0.16293 2:0.00582029 3:-2.82201 4:0.0814521 5:0.769542 6:0.205039 7:0.110533 8:0.00131407 
0.0 0.0 1.0 0.0 1.0 1.0 0.0 0.0 0.0 0.0 0.0 0.0 1:0.193143 2:0.00695239 3:-2.72274 4:0.0687427 5:0.968299 6:0.204256 7:0.109551 8:0.00126252 
1.0 1.0 1.0 1.0 1.0 1.0 0.0 1.0 0.0 1.0 0.4637680810609991 0.0 1:0.231594 2:0.00551657 3:-2.72729 4:0.0857715 5:1.36544 6:0.339993 7:0.101541 8:0.00208988 
0.0 0.0 1.0 0.0 1.0 0.0 0.0 0.0 0.0 0.0 0.0 0.0 1:0.160134 2:0.00958562 3:-2.5909 4:0.122032 5:0.618813 6:0.22821 7:0.159484 8:0.00322083 
0.746023180352042 0.0 1.0 0.0 1.0 0.33453675642040115 0.0 0.0 0.0 0.0 0.0 0.6106912480531399 1:0.296329 2:0.00367261 3:-1.99711 4:0.0588522 5:1.10314 6:0.331326 7:0.022172 8:4.42303E-5 
0.0 0.0 1.0 0.0 1.0 0.0 0.0 0.0 0.0 0.0 0.0 0.0 1:0.125706 2:0.00510133 3:-2.67573 4:0.0817525 5:0.752628 6:0.308377 7:0.0845458 8:7.83605E-4 
0.0 0.0 1.0 0.0 1.0 0.0 0.0 0.0 0.0 0.0 0.0 0.0 1:0.224323 2:0.0093295 3:-2.38309 4:0.0818103 5:0.908488 6:0.21355 7:0.241645 8:0.00811203 
1.0 1.0 1.0 1.0 1.0 1.0 0.16402083928061623 1.0 0.4623925208446941 1.0 1.0 0.0 1:0.18488 2:0.00825582 3:-2.61131 4:0.0919078 5:1.45912 6:0.541949 7:0.0701165 8:0.00162475 
0.19019517422397011 1.0 1.0 1.0 1.0 1.0 0.0 1.0 0.35155010569356626 1.0 0.10595207619017825 0.6442377206741493 1:0.0889029 2:0.00451398 3:-3.26138 4:0.0767818 5:1.13873 6:0.27258 7:0.0624948 8:5.64072E-4 
0.0 0.0 1.0 0.0 1.0 0.0 0.0 0.0 0.0 0.0 0.0 0.0 1:0.177896 2:0.00868699 3:-2.45024 4:0.061759 5:0.786213 6:0.137699 7:0.152721 8:0.00198178 
0.0 0.0 1.0 0.0 1.0 0.0 0.0 0.0 0.0 0.0 0.0 0.05516766758542658 1:0.229649 2:0.0132172 3:-2.21781 4:0.0765992 5:0.802272 6:0.186864 7:0.392 8:0.0225625 
-0.4052344796732486 0.9813816988836619 0.5962168951863901 0.41078708947945336 0.6855319091487055 1.0 0.0 0.7846602359168579 0.16132067606806316 0.8937905750219524 0.018099263717152356 0.8268998096712664 1:0.0555996 2:0.00236095 3:-4.23311 4:0.0764215 5:15.8969 6:3.62673 7:0.0312991 8:0.00618706 
-0.28567713747011736 1.0 0.4428677249783194 0.29869685425450565 0.5223242168487068 1.0 0.0 1.0 0.07915486870830644 0.4615104823039581 0.058156020136329624 0.5124005797863204 1:0.428407 2:0.0119043 3:-2.13212 4:0.0567289 5:9.01757 6:2.49652 7:0.0471857 8:0.00583899 
-0.0 1.0 0.0 0.0 0.0 1.0 0.0 0.28096122449831046 0.0 1.0 0.0 0.0 1:0.202417 2:0.00232397 3:-3.33252 4:0.0788662 5:7.88725 6:3.13725 7:0.0483486 8:0.0066255 
-1.0 1.0 1.0 1.0 1.0 1.0 0.0 1.0 0.0 1.0 0.08814766415969251 0.3415137942241987 1:0.279022 2:0.012296 3:-1.88854 4:0.13563 5:1.79231 6:1.00385 7:0.0337506 8:5.74691E-4 
-0.0 1.0 0.36330192723501664 0.1973219788310354 0.668078100010958 1.0 0.014494093267310156 1.0 1.0 1.0 0.8355970519868255 0.15308471729327044 1:0.0874214 2:0.00652484 3:-3.88441 4:0.17299 5:5.5942 6:2.12318 7:0.0407243 8:0.00239217 
-1.0 1.0 1.0 1.0 1.0 1.0 0.9434035072731732 1.0 1.0 1.0 1.0 0.2616945476526857 1:0.0519527 2:0.00302912 3:-3.93496 4:0.122955 5:2.70587 6:0.797914 7:0.0592602 8:0.00169306 
-0.24530673743264614 1.0 0.2125431416340381 0.1694531208492518 0.14005866849874826 1.0 0.0 1.0 0.005509568384416685 0.8571474763925803 0.0 0.3760427792970192 1:0.0298706 2:0.00365919 3:-4.35157 4:0.190577 5:7.96298 6:2.66961 7:0.0356363 8:0.00249337 
-1.0 1.0 1.0 1.0 1.0 1.0 0.04210239945951668 1.0 0.7540148868392137 1.0 1.0 0.0 1:0.2826 2:0.0025435 3:-2.68077 4:0.0618372 5:2.64 6:0.696461 7:0.0641461 8:0.00184041 
-0.0 -0.0 0.0 0.0 1.0 1.0 0.6659326044417213 1.0 0.0 0.0 0.0 0.0 1:0.0643227 2:0.00190347 3:-3.70317 4:0.0696332 5:3.06936 6:0.653706 7:0.0661215 8:0.00183933 
-0.2617560386925158 -1.0 1.0 0.0 1.0 1.0 0.0 0.0 0.0 0.22351811392788995 0.04271488164550949 0.1738374757923012 1:0.242379 2:0.00654283 3:-2.65984 4:0.0504552 5:3.2858 6:0.613649 7:0.106912 8:0.00595251 
-0.0 -0.0 0.0 0.0 0.0 1.0 0.0 0.19574183320709793 0.0 1.0 0.0 0.0 1:0.0915891 2:0.0043433 3:-3.62055 4:0.0927794 5:4.66123 6:1.02968 7:0.0444361 8:0.00135298 
-1.0 -0.0 1.0 1.0 1.0 1.0 0.1759698195347445 1.0 0.21723381496805577 0.4131480179430715 0.0 0.5230635444191167 1:0.0371965 2:0.00448032 3:-3.81907 4:0.121338 5:1.7371 6:0.442502 7:0.106577 8:0.00309762 
-1.0 -1.0 1.0 1.0 1.0 1.0 0.0 0.0 0.0 1.0 0.07715500190439162 0.0 1:0.119503 2:0.00692664 3:-3.22756 4:0.102817 5:1.83113 6:0.505971 7:0.0719065 8:0.00156549 
-1.0 -0.0 1.0 0.7848517683471247 1.0 1.0 0.0 0.0 0.0 0.0 1.0 0.0 1:0.083258 2:0.005477 3:-3.47056 4:0.1015 5:2.43876 6:0.561111 7:0.0610154 8:0.00134294 
-0.0 -0.0 0.0 0.0 0.0 1.0 0.0 0.0 0.0 0.0 0.0 0.0 1:0.101451 2:0.00394603 3:-3.62102 4:0.0685268 5:4.9775 6:0.897405 7:0.0666637 8:0.00322983 
-1.0 -0.3655293976262136 1.0 1.0 1.0 1.0 0.0 0.882138185503312 0.0 1.0 0.0 0.0 1:0.0987827 2:0.0041176 3:-3.43338 4:0.0893199 5:1.84748 6:0.463622 7:0.0715436 8:0.00145313 
-0.2929163515571349 -1.0 0.34247916866118805 0.09049171043503669 0.2711137988237766 1.0 0.0 1.0 0.0 0.0 0.0 0.18989910996831272 1:0.0469442 2:0.00276621 3:-4.13328 4:0.0739952 5:8.3822 6:1.27505 7:0.0374841 8:0.00142813 
-0.0 -0.293621269449171 0.0 0.0 0.0 1.0 0.0 1.0 1.0 0.0 0.0 0.18964020966511752 1:0.0345841 2:0.00144651 3:-4.23759 4:0.0608996 5:4.59792 6:0.815452 7:0.0705881 8:0.00316784 
-0.0 -0.0 0.0 0.0 0.0 1.0 0.0 0.0 0.0 1.0 0.0 0.0 1:0.131191 2:0.00445885 3:-3.26911 4:0.0810956 5:3.35338 6:0.861303 7:0.0518851 8:0.00137696 
-0.31313192990548844 -1.0 0.39995382606788493 0.10157024413653311 0.3366555983802784 1.0 0.0 1.0 0.0 1.0 0.0 0.7942220042285599 1:0.0397466 2:0.00444912 3:-4.1848 4:0.192882 5:8.10133 6:3.01428 7:0.0318547 8:0.00214342 
-0.0 -0.3657155042355528 0.0 0.023086277081305572 0.0 1.0 0.0 0.0 0.0 0.6323874450731876 0.06497967162152236 0.0 1:0.148654 2:0.0034185 3:-3.53115 4:0.0507419 5:6.39239 6:1.35424 7:0.0424809 8:0.00172478 
-0.0 -0.0 0.0 0.0 0.0 1.0 0.0 1.0 0.35141900963550615 0.0 0.0 0.0 1:0.0628078 2:0.00316702 3:-3.83683 4:0.0885419 5:3.38475 6:0.735492 7:0.0431863 8:8.23776E-4 
-0.0 -0.0 0.0 0.0 0.0 1.0 0.0 1.0 0.2270086395692662 0.0 0.0 0.0 1:0.0499199 2:0.00214795 3:-4.04228 4:0.0564129 5:4.2756 6:0.661633 7:0.0448846 8:8.30695E-4 
-0.0 -1.0 0.0 0.0 0.0 1.0 0.0 0.0029627117721383284 0.20433853582717193 0.730946423055851 0.0 0.0 1:0.0952457 2:0.00455696 3:-3.84588 4:0.0931909 5:6.95199 6:1.76986 7:0.0314679 8:0.0011494 
-0.0 -0.0 0.0 0.0 0.0 1.0 0.0 1.0 0.0 0.0 0.0 0.0 1:0.0707461 2:0.00297671 3:-3.87969 4:0.0839249 5:3.73479 6:0.743983 7:0.0482269 8:0.00109686 
-1.0 -1.0 1.0 1.0 1.0 1.0 0.0 1.0 0.0 1.0 0.0 0.0 1:0.0854526 2:0.00549728 3:-3.43503 4:0.0920184 5:1.77961 6:0.434349 7:0.090595 8:0.00211866 
-0.0 -0.0 0.9355089650982172 0.0 1.0 1.0 0.02424860040244961 0.9191572695174518 0.0 0.0 0.42242152033076147 0.0 1:0.0902088 2:0.00360569 3:-3.5499 4:0.077418 5:2.83675 6:0.667178 7:0.0546644 8:0.00118681 
-0.0 -0.30262706628499425 0.2659781650976486 0.0 1.0 1.0 0.0 0.0 0.0 1.0 0.46815283964937143 0.0 1:0.204268 2:0.00663267 3:-2.80854 4:0.0663815 5:3.383 6:0.746882 7:0.0782541 8:0.00313513 
-0.0 -0.0 0.0 0.0 0.0 1.0 0.1338489756210847 1.0 1.0 0.0 0.0 0.0 1:0.0394536 2:0.0021352 3:-4.05963 4:0.078286 5:3.52621 6:0.660841 7:0.0444315 8:7.51807E-4 
-0.0 -0.6538884612877303 0.0 0.0 0.0 1.0 0.0 0.0 0.0 1.0 0.9245760848484437 0.17905537068757763 1:0.183545 2:0.00839333 3:-3.02189 4:0.0961454 5:5.28214 6:1.40135 7:0.0640482 8:0.00470625 
-0.0 -0.0 0.0 0.0 0.0 1.0 0.0 1.0 0.0 0.0 0.0 0.0 1:0.0761901 2:0.00369046 3:-3.74534 4:0.0701414 5:5.08752 6:0.94555 7:0.0751172 8:0.00491352 
-0.0 -0.0 -0.0 0.0 1.0 0.0 0.0 0.0 0.0 0.0 0.0 0.0 1:0.197116 2:0.0105732 3:-2.23268 4:0.126847 5:1.04491 6:0.564063 7:0.0335695 8:3.03695E-4 
-0.0 -0.0 -0.0 0.0 1.0 0.0 0.0 0.0 0.0 0.0 0.0 0.0 1:0.190814 2:0.00529948 3:-2.27669 4:0.1011 5:1.40186 6:0.765831 7:0.0336258 8:4.24647E-4 
-0.0 -0.0 -0.0 0.0 1.0 0.0 0.0 0.0 0.0 0.0 0.0 0.0 1:0.120682 2:0.00803128 3:-2.64748 4:0.122041 5:1.40494 6:0.708909 7:0.0446495 8:6.87304E-4 
-0.0 -0.04818562750010773 -1.0 1.0 1.0 1.0 0.0 1.0 0.14413005162163545 1.0 0.0 0.0 1:0.059781 2:0.00375896 3:-3.41396 4:0.139887 5:1.29906 6:0.525928 7:0.0470848 8:5.75122E-4 
-0.0 -0.0 -0.0 0.0 1.0 0.0 0.0 0.0 0.0 0.0 0.0 0.0 1:0.191283 2:0.00638874 3:-2.21306 4:0.0944584 5:1.39229 6:0.754601 7:0.0382564 8:5.4771E-4 
-1.0 -0.0 -0.0 0.0 1.0 0.0 0.0 0.0 0.0 0.0 0.0 0.0 1:0.119568 2:0.00562674 3:-2.58361 4:0.0831445 5:0.653602 6:0.285219 7:0.0371058 8:1.88299E-4 
-0.0 -1.0 -1.0 1.0 1.0 1.0 0.2703483609374713 1.0 1.0 1.0 1.0 0.0 1:0.0649952 2:0.00404036 3:-3.41816 4:0.12289 5:1.37194 6:0.46893 7:0.0790074 8:0.00159184 
-0.0 -0.0 -0.0 0.0 1.0 0.0 0.0 0.0 0.0 0.0 0.0 0.0 1:0.263474 2:0.00524967 3:-1.96309 4:0.0753137 5:1.46328 6:0.793735 7:0.0311717 8:3.72808E-4 
-0.0 -0.0 -0.0 0.0 1.0 0.0 0.0 0.0 0.0 0.0 0.0 0.0 1:0.108828 2:0.0109656 3:-2.78857 4:0.169178 5:1.48683 6:0.802593 7:0.0416304 8:6.88185E-4 
-0.0 -0.0 -0.0 0.0 1.0 0.0 0.0 0.0 0.0 0.0 0.0 0.0 1:0.146964 2:0.0125739 3:-2.50097 4:0.148876 5:1.23063 6:0.665294 7:0.0367532 8:4.35476E-4 
-1.0 -0.0 -1.0 1.0 1.0 1.0 0.0 0.9688830285003204 0.0 0.0 0.0 0.0 1:0.0852466 2:0.00314236 3:-3.2113 4:0.0876704 5:1.11836 6:0.312771 7:0.112206 8:0.0022653 
-0.0 -0.0 -0.0 0.0 1.0 0.0 0.0 0.0 0.0 0.0 0.0 0.0 1:0.141307 2:0.00501813 3:-2.61602 4:0.105172 5:1.29654 6:0.701484 7:0.0382993 8:4.86235E-4 
-0.0 -0.0 -0.0 0.0 1.0 0.0 0.0 0.0 0.0 0.0 0.0 0.0 1:0.0804065 2:0.00459649 3:-2.97797 4:0.10071 5:0.868002 6:0.385116 7:0.0490905 8:3.84227E-4 
-1.0 -0.0 -0.0 0.0 1.0 0.0 0.0 0.0 0.0 0.0 0.0 0.0 1:0.220392 2:0.00684619 3:-2.182 4:0.0870523 5:1.10708 6:0.546715 7:0.0382381 8:3.84049E-4 
-0.0 -0.0 -0.0 0.0 1.0 0.0 0.0 0.0 0.0 0.0 0.0 0.0 1:0.332662 2:0.00535046 3:-1.66829 4:0.061303 5:1.7341 6:0.870442 7:0.0208334 8:1.86297E-4 
-0.0 -0.0 -0.0 0.0 1.0 0.0 0.0 0.0 0.0 0.0 0.0 0.0 1:0.141307 2:0.00501813 3:-2.61602 4:0.105172 5:1.29654 6:0.701484 7:0.0382993 8:4.86235E-4 
-1.0 -0.0 -0.0 0.0 1.0 0.0 0.0 0.0 0.0 0.0 0.0 0.0 1:0.14418 2:0.00572868 3:-2.46743 4:0.0836107 5:1.50032 6:0.594874 7:0.0256684 8:2.0562E-4 
-0.0 -0.0 -0.6718339185981554 0.0 1.0 0.1669207924035675 0.0 0.0 0.0 0.0 0.0 0.0 1:0.197296 2:0.0064747 3:-2.17901 4:0.0971793 5:1.83084 6:1.01651 7:0.0253473 8:3.48846E-4 
-0.0 -0.0 -0.0 0.0 1.0 0.0 0.0 0.0 0.0 0.0 0.0 0.0 1:0.0746804 2:0.00972324 3:-3.1041 4:0.225659 5:0.791894 6:0.405528 7:0.0802942 8:0.00126304 
-0.3193155442359149 -0.0 -0.0 0.0 1.0 0.0 0.0 0.0 0.0 0.0 0.0 0.0 1:0.268735 2:0.00500519 3:-1.8432 4:0.0682041 5:1.33424 6:0.705047 7:0.0217227 8:1.704E-4 
-0.0 -0.0 -0.0 0.0 1.0 0.0 0.0 0.0 0.0 0.0 0.0 0.0 1:0.281032 2:0.00558975 3:-1.82203 4:0.0893592 5:1.51408 6:0.841838 7:0.0228788 8:2.28273E-4 
-0.0 -1.0 -1.0 0.0 0.0 1.0 0.0 0.8092049112821437 0.09574586727649868 1.0 0.9280015994318864 0.0 1:0.196466 2:0.00975108 3:-2.06762 4:0.0926004 5:2.12448 6:1.13514 7:0.0270188 8:4.24747E-4 
-1.0 -0.0 -0.0 0.0 1.0 0.0 0.0 0.0 0.0 0.0 0.0 0.0 1:0.213349 2:0.0107536 3:-2.46464 4:0.149764 5:0.798487 6:0.351859 7:0.149139 8:0.00471985 
-0.0 -0.0 -0.0 0.0 1.0 1.0 0.0 0.0 0.0 0.0 0.0 0.0 1:0.20338 2:0.0088446 3:-2.032 4:0.0930763 5:1.85053 6:0.890651 7:0.0280006 8:3.3869E-4 
-1.0 -0.0 -0.0 0.0 1.0 0.0 0.0 0.0 0.0 0.0 0.0 0.0 1:0.229365 2:0.0103929 3:-2.17734 4:0.106308 5:0.433312 6:0.135186 7:0.231932 8:0.00437204 
-1.0 -0.0 -0.0 0.0 1.0 0.0 0.0 0.0 0.0 0.0 0.0 0.0 1:0.132911 2:0.00627196 3:-2.83699 4:0.101336 5:1.10971 6:0.431393 7:0.0621688 8:8.95143E-4 
-1.0 -0.0 -0.0 0.0 1.0 0.0 0.0 0.0 0.0 0.0 0.0 0.0 1:0.103914 2:0.0109518 3:-2.90741 4:0.161772 5:0.798098 6:0.300518 7:0.170267 8:0.0051684 
-0.0 -0.0 -0.0 0.0 1.0 0.0 0.0 0.0 0.0 0.0 0.0 0.0 1:0.127154 2:0.00744076 3:-2.7746 4:0.155153 5:1.10407 6:0.548983 7:0.051191 8:7.89085E-4 
-0.0 -0.0 -1.0 0.0 1.0 1.0 0.0 0.0 0.0 0.0 0.0 0.0 1:0.124169 2:0.00882879 3:-2.77369 4:0.169781 5:1.54528 6:0.748616 7:0.0419209 8:6.87269E-4 
-1.0 -0.0 -0.0 0.0 1.0 0.0 0.0 0.0 0.0 0.0 0.0 0.0 1:0.153506 2:0.00719474 3:-2.81129 4:0.115398 5:1.18832 6:0.360278 7:0.146458 8:0.00488649 
-1.0 -0.0 -0.0 0.0 1.0 0.0 0.0 0.0 0.0 0.0 0.0 0.0 1:0.163188 2:0.00871454 3:-2.62894 4:0.09639 5:0.80982 6:0.238127 7:0.206356 8:0.00631138 
-0.0 -1.0 -1.0 1.0 1.0 1.0 0.7296516390625287 1.0 1.0 1.0 1.0 0.27628576888619366 1:0.166183 2:0.0118531 3:-2.76849 4:0.148014 5:2.45246 6:0.982996 7:0.119705 8:0.00998619 
-0.0 -0.0 -0.0 0.0 1.0 0.0 0.0 0.0 0.0 0.0 0.0 0.0 1:0.162331 2:0.00729198 3:-2.27943 4:0.107719 5:1.14057 6:0.600388 7:0.0327667 8:3.10281E-4 
-1.0 -0.0 -0.0 0.0 1.0 0.0 0.0 0.0 0.0 0.0 0.0 0.0 1:0.241188 2:0.0043604 3:-2.25608 4:0.0824889 5:1.25677 6:0.605103 7:0.0624986 8:0.00129622 
-0.0 -0.0 -0.0 0.0 1.0 0.0 0.0 0.0 0.0 0.0 0.0 0.0 1:0.238485 2:0.00789101 3:-2.02696 4:0.10264 5:1.50552 6:0.810433 7:0.0350084 8:4.96724E-4 
-0.0 -0.0 -0.0 0.0 1.0 0.0 0.0 0.0 0.0 0.0 0.0 0.0 1:0.101729 2:0.00568956 3:-2.91847 4:0.10863 5:0.397178 6:0.121047 7:0.0927411 8:6.34593E-4 
-0.0 -0.0 -0.0 0.0 1.0 0.0 0.0 0.0 0.0 0.0 0.0 0.0 1:0.0535656 2:0.00460697 3:-3.36989 4:0.126625 5:0.619887 6:0.241908 7:0.0510848 8:3.08342E-4 
-1.0 -0.0 -0.27208620632678315 0.0 1.0 0.6779544509619139 0.0 0.0 0.0 0.0 0.0 0.0 1:0.0859442 2:0.00766785 3:-3.21762 4:0.125147 5:1.09281 6:0.300348 7:0.166504 8:0.00523128 
-0.0 -0.0 -0.0 0.0 1.0 0.0 0.0 0.0 0.0 0.0 0.0 0.0 1:0.0658808 2:0.00482497 3:-3.2456 4:0.0919516 5:0.770245 6:0.182566 7:0.0936126 8:8.13631E-4 
-1.0 -0.28254976414318067 -1.0 1.0 1.0 1.0 0.0 1.0 0.0 1.0 0.07199840056811356 0.0 1:0.0651207 2:0.00525693 3:-3.4242 4:0.0750714 5:1.13641 6:0.21472 7:0.129008 8:0.00222186 
-0.0 -1.0 -0.0 0.0 0.0 0.0 0.0 0.0 0.0 0.632092541469462 0.0 0.5515740232403903 1:0.376709 2:0.0102761 3:-1.44334 4:0.0794201 5:1.92238 6:1.07047 7:0.0208017 8:2.34015E-4 
-0.0 -0.0 -0.0 0.0 1.0 0.0 0.0 0.0 0.0 0.0 0.0 0.0 1:0.117068 2:0.00715488 3:-2.66631 4:0.127423 5:1.17397 6:0.58922 7:0.0360332 8:3.59895E-4 
-0.0 -0.0 -0.0 0.0 1.0 0.0 0.0 0.0 0.0 0.0 0.0 0.0 1:0.271176 2:0.0122096 3:-1.75246 4:0.113314 5:1.68946 6:0.932901 7:0.0285338 8:2.71221E-4 
-0.8945659968361366 -0.0 -0.0 0.0 1.0 0.0 0.0 0.0 0.0 0.0 0.0 0.0 1:0.191388 2:0.00953403 3:-2.41303 4:0.140947 5:0.819243 6:0.428016 7:0.0566075 8:7.25321E-4 
-0.35692048017721495 -0.0 -0.0 0.0 1.0 0.0 0.0 0.0 0.0 0.0 0.0 0.0 1:0.0914576 2:0.00610756 3:-2.86954 4:0.112072 5:0.404936 6:0.119806 7:0.125377 8:7.01821E-4 
-0.0 -0.0 -0.0 0.0 1.0 0.0 0.0 0.0 0.0 0.0 0.0 0.0 1:0.0926188 2:0.00611467 3:-3.15862 4:0.145276 5:1.09337 6:0.445494 7:0.0630221 8:0.00105145 
-0.0 -0.0 -0.0 0.0 1.0 0.0 0.0 0.0 0.0 0.0 0.0 0.0 1:0.398988 2:0.00560355 3:-1.54463 4:0.0769389 5:1.52991 6:0.845534 7:0.0241789 8:2.49448E-4 
-0.0 -0.0 -0.0 0.0 1.0 0.0 0.0 0.0 0.0 0.0 0.0 0.0 1:0.0638564 2:0.00672315 3:-3.22335 4:0.162596 5:0.660385 6:0.269311 7:0.109823 8:0.00172756 
-0.0 -0.0 -0.0 0.0 1.0 0.0 0.0 0.0 0.0 0.0 0.0 0.0 1:0.0534476 2:0.00543974 3:-3.44147 4:0.163892 5:0.75133 6:0.320408 7:0.0604429 8:4.85797E-4 
-1.0 -0.0 -0.0 0.0 1.0 0.0 0.0 0.0 0.0 0.456793299051991 0.0 0.04911686180842407 1:0.139258 2:0.00945273 3:-2.47142 4:0.120472 5:0.282806 6:0.0930285 7:0.186309 8:0.00158261 
-0.0 -0.0 -0.0 0.0 1.0 0.0 0.0 0.0 0.0 0.0 0.0 0.0 1:0.0667597 2:0.00595396 3:-3.36317 4:0.173298 5:0.814645 6:0.356496 7:0.0663324 8:7.00013E-4 
-0.0 -0.0 -0.0 0.0 1.0 0.0 0.0 0.0 0.0 0.0 0.0 0.0 1:0.0802041 2:0.00680733 3:-3.12286 4:0.184794 5:0.748125 6:0.369145 7:0.0822481 8:0.00136728 
-0.0 -0.0 -0.0 0.0 1.0 0.0 0.0 0.0 0.0 0.0 0.0 0.0 1:0.0719248 2:0.00726942 3:-3.22439 4:0.192845 5:0.846625 6:0.420471 7:0.0785461 8:0.00143091 
-0.0 -0.0 -0.0 0.0 1.0 0.0 0.0 0.0 0.0 0.0 0.0 0.0 1:0.112065 2:0.00848426 3:-2.85362 4:0.142393 5:0.747461 6:0.35052 7:0.0881999 8:0.001429 
-1.0 -0.0 -0.0 0.0 1.0 0.0 0.0 0.0 0.0 0.0 0.0 0.0 1:0.235158 2:0.00792129 3:-1.98234 4:0.0774813 5:0.716801 6:0.340999 7:0.062341 8:6.2855E-4 
-0.0 -0.28419429739047586 -0.0 0.0 1.0 0.0 0.0 0.0 0.0 0.0 0.0 0.6372586156453408 1:0.0579473 2:0.00498637 3:-3.36912 4:0.146009 5:0.444609 6:0.153854 7:0.0464228 8:1.67889E-4 
-0.42919797875073357 -0.0 -0.0 0.0 1.0 0.0 0.0 0.0 0.0 0.0 0.0 0.0 1:0.124799 2:0.00818254 3:-2.73651 4:0.147801 5:0.704076 6:0.336956 7:0.167893 8:0.0054483 
-0.0 -0.0 -0.0 0.0 1.0 0.0 0.0 0.0 0.0 0.0 0.0 0.0 1:0.104483 2:0.00582311 3:-2.78569 4:0.115585 5:0.760518 6:0.337532 7:0.0523509 8:3.83403E-4 
-1.0 -1.0 -1.0 -1.0 1.0 1.0 1.0 1.0 1.0 1.0 1.0 0.6888850519937673 1:0.0418757 2:0.00408376 3:-3.80016 4:0.100643 5:2.40405 6:0.550277 7:0.11475 8:0.00514166 
-1.0 -0.0762590434142462 -1.0 -1.0 1.0 1.0 0.0 1.0 0.0 1.0 0.0 0.6888523994139933 1:0.0731435 2:0.00605689 3:-3.19433 4:0.105633 5:0.734519 6:0.21599 7:0.153632 8:0.00262074 
-1.0 -1.0 -1.0 -1.0 1.0 1.0 0.0 1.0 0.0 1.0 0.0 0.0 1:0.104733 2:0.00641286 3:-3.15716 4:0.0946524 5:1.35992 6:0.326572 7:0.152116 8:0.00492221 
-1.0 -1.0 -1.0 -1.0 1.0 1.0 0.0 1.0 1.0 1.0 0.9181052888524206 0.0 1:0.0595815 2:0.00529822 3:-3.53125 4:0.0934055 5:1.79882 6:0.321622 7:0.0907411 8:0.00161687 
-1.0 -1.0 -1.0 -1.0 1.0 1.0 0.0 1.0 0.3602889880730529 1.0 1.0 0.0 1:0.124321 2:0.00605697 3:-3.00142 4:0.0610606 5:1.89597 6:0.363771 7:0.15297 8:0.00626508 
-0.5142127753765972 -0.0 -0.0 -1.0 -0.0 0.0 0.0 0.0 0.0 0.0 0.0 0.0 1:0.138033 2:0.0166133 3:-2.80526 4:0.0982265 5:1.36439 6:0.236954 7:0.312598 8:0.0236127 
-0.0 -0.0 -0.0 -1.0 -0.0 0.0 0.0 0.0 0.0 0.0 0.0 0.0 1:0.313031 2:0.00392853 3:-2.27128 4:0.0536198 5:0.50825 6:0.117007 7:0.115539 8:3.48127E-4 
-0.0 -0.0 -0.0 -1.0 -0.0 0.0 0.0 0.0 0.0 0.0 0.0 0.12696070181119595 1:0.209202 2:0.00783364 3:-2.42549 4:0.0755527 5:0.457181 6:0.109449 7:0.239398 8:0.00207582 
-0.3950335827699896 -0.0 -0.0 -1.0 -0.0 0.0 0.0 0.0 0.0 0.0 0.0 0.0 1:0.273545 2:0.0116566 3:-2.20644 4:0.0894199 5:1.18218 6:0.401108 7:0.232918 8:0.0158219 
-0.0 -0.0 -1.0 -1.0 -0.0 1.0 0.0 0.0 0.0 0.0 0.0 0.0 1:0.27164 2:0.00540483 3:-2.41299 4:0.0505194 5:2.01835 6:0.468079 7:0.0487734 8:5.82186E-4 
-0.19121147061730487 -0.0 -0.0 -1.0 -0.0 0.0 0.0 0.0 0.0 0.0 0.0 0.0 1:0.435085 2:0.00145529 3:-2.02119 4:0.0398168 5:1.00146 6:0.253511 7:0.0353902 8:1.53838E-4 
-1.0 -0.0 -0.0 -1.0 -0.0 0.0 0.0 0.0 0.0 0.0 0.0 0.0 1:0.206109 2:0.012491 3:-2.497 4:0.0849721 5:0.593985 6:0.129627 7:0.158865 8:0.00177373 
-0.0 -0.0 -0.0 -0.0027902693259063732 -0.0 0.0 0.0 0.0 0.0 0.0 0.0 0.0 1:0.31896 2:0.00414003 3:-2.34929 4:0.0540417 5:1.07742 6:0.18766 7:0.12728 8:0.00191539 
-0.924928106899663 -0.0 -0.0 -1.0 -0.0 0.0 0.0 0.0 0.0 0.0 0.0 0.0 1:0.164446 2:0.00546197 3:-2.77353 4:0.0769068 5:1.27189 6:0.395354 7:0.0423397 8:3.41305E-4 
-0.0 -0.0 -0.9973117231689662 -1.0 -0.0 0.7963612858431673 0.0 0.0 0.0 0.0 0.0 0.0 1:0.252401 2:0.0122787 3:-2.72152 4:0.120555 5:1.59528 6:0.397088 7:0.0625179 8:8.84208E-4 
-0.018448672066592627 -1.0 -1.0 -1.0 -0.04922227941943508 1.0 0.04704623491590477 1.0 0.5611569532145312 1.0 1.0 0.23753344258484924 1:0.384973 2:0.00650046 3:-2.07863 4:0.0501974 5:2.98264 6:0.681895 7:0.0814633 8:0.00294789 
-0.023278946273595273 -1.0 -0.0 -0.08102859666486963 -0.0 0.36178125691257323 0.0 0.04362639990527574 0.17905520226606655 0.12117463354376759 0.08017848709581592 0.59230292771884 1:0.691264 2:0.00502595 3:-1.018 4:0.0240632 5:0.87364 6:0.186602 7:0.296846 8:0.0105318 
-0.25817757903081345 -0.5133186484440206 -0.0 -1.0 -0.0 0.0 0.0 0.0 0.0 0.16866371429781735 0.0 0.0 1:0.262071 2:0.00691993 3:-1.93638 4:0.0879302 5:1.59439 6:0.812464 7:0.0217086 8:1.92382E-4 
-0.1203560975938047 -0.0 -0.0 -1.0 -0.0 0.0 0.0 0.0 0.0 0.0 0.0 0.0 1:0.304543 2:0.00213974 3:-2.30879 4:0.0428276 5:1.59058 6:0.397181 7:0.0289791 8:1.64943E-4 
-0.8932721881357472 -0.0 -0.0 -0.8748068274759221 -0.0 0.0 0.0 0.0 0.0 0.0 0.0 0.0 1:0.358239 2:0.00299501 3:-2.07283 4:0.0624821 5:1.05851 6:0.214601 7:0.14161 8:0.00251656 
-1.0 -0.0 -0.0 -1.0 -0.7453405288593119 0.0 0.0 0.0 0.0 0.0 0.0 0.0 1:0.0925461 2:0.00172063 3:-3.07272 4:0.0690074 5:1.21705 6:0.330148 7:0.105106 8:0.00224209 
-0.022679412274386378 -0.0 -0.0 -1.0 -0.0 0.0 0.0 0.0 0.0 0.0 0.0 0.0 1:0.0986952 2:0.00641618 3:-2.96967 4:0.108342 5:1.1279 6:0.33201 7:0.0574888 8:5.27624E-4 
-0.035023105729539664 -0.0 -0.0 -1.0 -0.0 0.0 0.0 0.0 0.0 0.0 0.0 0.0 1:0.221065 2:0.00801368 3:-2.60369 4:0.069878 5:1.48628 6:0.381785 7:0.0496017 8:4.75006E-4 
-0.0 -0.0 -0.0 -1.0 -0.0 0.0 0.0 0.0 0.0 0.0 0.0 0.0 1:0.125028 2:0.0163923 3:-2.88338 4:0.164033 5:1.19318 6:0.490284 7:0.0375344 8:2.16479E-4 
-0.10198753370528814 -0.4284422177940023 -1.0 -1.0 -0.9491910220427081 1.0 0.0 1.0 0.0 0.8776280548593806 0.0 0.0 1:0.0456908 2:0.00292375 3:-3.61889 4:0.0831189 5:1.46203 6:0.251952 7:0.136687 8:0.00285498 
-0.0 -0.0 -0.0 -1.0 -0.0 0.0 0.0 0.0 0.0 0.0 0.0 0.0 1:0.20559 2:0.0148799 3:-2.57513 4:0.125008 5:0.994698 6:0.268052 7:0.09947 8:0.00162509 
-0.0 -0.0 -0.0 -1.0 -0.0 0.0 0.0 0.0 0.0 0.0 0.0 0.0 1:0.188883 2:0.0118177 3:-2.64132 4:0.116096 5:0.960379 6:0.277276 7:0.0639595 8:7.10733E-4 
-0.0 -0.0 -0.0 -1.0 -0.0 0.0 0.0 0.0 0.0 0.0 0.0 0.0 1:0.285409 2:0.0123514 3:-2.31573 4:0.107784 5:0.67036 6:0.167719 7:0.102947 8:0.00112757 
-0.0 -0.0 -0.0 -1.0 -0.0 0.0 0.0 0.0 0.0 0.0 0.0 0.0 1:0.16131 2:0.00499676 3:-2.79088 4:0.07737 5:1.01901 6:0.286692 7:0.082829 8:8.57177E-4 
-1.0 -0.0 -0.0 -1.0 -0.0 0.0 0.0 0.0 0.0 0.0 0.0 0.0 1:0.21316 2:0.006604 3:-2.47575 4:0.083402 5:0.785487 6:0.241243 7:0.0978314 8:0.00126593 
-0.0 -0.0 -0.0 -1.0 -0.0 0.0 0.0 0.0 0.0 0.0 0.0 0.0 1:0.258085 2:0.00992511 3:-2.29793 4:0.0989001 5:0.717449 6:0.237734 7:0.295635 8:0.013515 
-0.0 -1.0 -1.0 -1.0 -0.787224872727784 1.0 0.9529537650840952 1.0 1.0 1.0 1.0 0.6181504928913316 1:0.0452682 2:0.00249452 3:-3.84304 4:0.0769921 5:2.51449 6:0.462398 7:0.0625256 8:0.00116515 
-0.0 -0.0 -0.0 -1.0 -0.0 0.0 0.0 0.0 0.0 0.0 0.0 0.0 1:0.179784 2:0.0103359 3:-2.82713 4:0.16562 5:1.11227 6:0.443166 7:0.128198 8:0.00433407 
-0.0 -0.0 -0.0 -1.0 -0.0 0.0 0.0 0.0 0.0 0.0 0.0 0.0 1:0.24485 2:0.00768215 3:-2.31353 4:0.113791 5:0.599298 6:0.220885 7:0.138989 8:0.00256493 
-0.0 -0.0 -0.0 -1.0 -0.0 0.0 0.0 0.0 0.0 0.0 0.0 0.0 1:0.210408 2:0.0108199 3:-2.5865 4:0.119124 5:0.97493 6:0.26788 7:0.059457 8:5.87841E-4 
-0.0 -0.0 -0.0 -1.0 -0.0 0.0 0.0 0.0 0.0 0.0 0.0 0.0 1:0.316836 2:0.0152824 3:-2.09972 4:0.110681 5:0.615092 6:0.199174 7:0.119537 8:0.00164419 
-0.38250693464545293 -0.0 -0.0 -1.0 -0.0 0.0 0.0 0.0 0.0 0.0 0.0 0.0 1:0.198424 2:0.0118989 3:-2.59328 4:0.155494 5:0.806714 6:0.239691 7:0.109911 8:0.00172829 
-1.0 -0.0 -0.0 -1.0 -0.0 0.0 0.0 0.0 0.0 0.0 0.0 0.0 1:0.130411 2:0.00351167 3:-2.85718 4:0.0437942 5:1.0753 6:0.203703 7:0.182657 8:0.00417007 
-0.5326474862349606 -0.0 -0.0 -1.0 -0.0 0.0 0.0 0.0 0.0 0.0 0.0 0.0 1:0.106701 2:0.00472314 3:-3.10444 4:0.0780106 5:1.27719 6:0.264034 7:0.0975853 8:0.00131603 
-0.0 -1.0 -1.0 -1.0 -0.1781289658481311 1.0 0.0 1.0 1.0 1.0 0.9198215129041841 0.0 1:0.0786958 2:0.029539 3:-3.43064 4:0.299289 5:2.26923 6:0.729255 7:0.105713 8:0.00564529 
-0.0 -0.0 -0.0 -1.0 -0.0 0.0 0.0 0.0 0.0 0.0 0.0 0.0 1:0.229927 2:0.0084949 3:-2.62199 4:0.159689 5:0.885051 6:0.372178 7:0.158529 8:0.00503544 
-0.0 -0.0 -0.6104576740350889 -1.0 -0.0 1.0 0.0 0.0 0.0 0.0 0.0 0.0 1:0.120546 2:0.00781734 3:-2.99423 4:0.0773146 5:1.41536 6:0.299 7:0.10483 8:0.00206778 
-1.0 -0.0 -0.0 -1.0 -0.0 0.0 0.0 0.0 0.0 0.0 0.0 0.0 1:0.154095 2:0.00615316 3:-2.70294 4:0.0749734 5:0.866818 6:0.210199 7:0.159044 8:0.00313018 
-1.0 -0.0 -0.0 -1.0 -0.0 0.0 0.0 0.0 0.0 0.0 0.0 0.0 1:0.177741 2:0.00789979 3:-2.6868 4:0.0774782 5:1.0822 6:0.310474 7:0.174058 8:0.00605075 
-0.0 -0.0 -0.0 -1.0 -0.0 0.0 0.0 0.0 0.0 0.0 0.0 0.0 1:0.184406 2:0.0119165 3:-2.53208 4:0.138325 5:0.861388 6:0.303854 7:0.141383 8:0.00372258 
-0.561060769683009 -0.0 -0.0 -1.0 -0.0 0.0 0.0 0.0 0.0 0.0 0.0 0.0 1:0.136462 2:0.00239887 3:-2.73825 4:0.049118 5:1.08126 6:0.289441 7:0.0608826 8:5.08312E-4 
-0.21625032106828512 -0.0 -0.0 -1.0 -0.0 0.0 0.0 0.0 0.0 0.0 0.0 0.0 1:0.212377 2:0.00669017 3:-2.35867 4:0.0818237 5:0.585509 6:0.187784 7:0.100652 8:0.00104701 
-1.0 -0.0 -0.0 -1.0 -0.14823221032199976 0.0 0.0 0.0 0.0 0.0 0.0 0.0 1:0.16632 2:0.00464467 3:-2.84447 4:0.0803808 5:0.765424 6:0.204635 7:0.0482794 8:2.57581E-4 
-0.3951486670618018 -0.0 -0.0 -1.0 -0.0 0.0 0.0 0.0 0.0 0.0 0.0 0.0 1:0.253198 2:0.0055034 3:-2.33512 4:0.0674516 5:1.10667 6:0.269481 7:0.0994194 8:0.001479 
-0.0 -0.0 -1.0 -1.0 -0.0 1.0 0.0 0.7391229887460777 0.0 0.0 0.0 0.0 1:0.120779 2:0.0068033 3:-3.03396 4:0.076497 5:1.60616 6:0.37494 7:0.0612024 8:7.24302E-4 
-0.0 -0.0 -0.0 -1.0 -0.0 0.0 0.0 0.0 0.0 0.0 0.0 0.0 1:0.152874 2:0.0102945 3:-2.88762 4:0.125839 5:1.13058 6:0.296871 7:0.0585636 8:5.40751E-4 
-0.0 -0.0 -0.0 -1.0 -0.0 0.0 0.0 0.0 0.0 0.0 0.0 0.0 1:0.23407 2:0.0183211 3:-2.73916 4:0.155286 5:1.37371 6:0.483507 7:0.10547 8:0.00329594 
-0.0 -0.05089536255713082 -1.0 -1.0 -0.5461816732873529 1.0 0.0 1.0 0.0 1.0 0.0 0.0 1:0.140529 2:0.00350014 3:-3.21953 4:0.0653562 5:2.0511 6:0.377994 7:0.0490734 8:5.02258E-4 
-1.0 -0.0 -0.0 -1.0 -0.0 0.0 0.0 0.0 0.0 0.0 0.0 0.0 1:0.181748 2:0.0151683 3:-2.36425 4:0.0958388 5:0.787318 6:0.174048 7:0.284388 8:0.00943577 
-1.0 -0.0 -0.0 -1.0 -0.0 0.0 0.0 0.0 0.0 0.0 0.0 0.0 1:0.181834 2:0.00742493 3:-2.60868 4:0.0954766 5:0.646843 6:0.202181 7:0.21561 8:0.00535959 
-0.0 -0.0 -0.0 -1.0 -0.0 0.0 0.0 0.0 0.0 0.0 0.0 0.0 1:0.102368 2:0.00173898 3:-2.89656 4:0.0398411 5:1.4609 6:0.297618 7:0.254649 8:0.0171197 
-0.0 -0.0 -1.0 -1.0 -1.0 1.0 0.0 1.0 0.0 0.0 0.0 0.0 1:0.0727892 2:0.0119697 3:-3.29818 4:0.139117 5:1.63358 6:0.421704 7:0.183688 8:0.00989084 
-1.0 -0.0 -0.0 -1.0 -0.0 0.0 0.0 0.0 0.0 0.0 0.0 0.0 1:0.274157 2:0.00774757 3:-2.15998 4:0.0901429 5:0.766894 6:0.253341 7:0.283745 8:0.0130952 
-0.0 -0.0 -0.0 -1.0 -0.0 0.0 0.0 0.0 0.0 0.0 0.0 0.0 1:0.260871 2:0.00930543 3:-2.35533 4:0.103271 5:0.687042 6:0.226018 7:0.193527 8:0.00463 
-0.0 -0.02333666571196479 -0.0 -0.0 -0.0 0.0 0.0 0.0 0.0 0.7785606111390034 0.0 0.0509374089608932 1:0.252547 2:0.020579 3:-2.0733 4:0.102594 5:0.391577 6:0.0895238 7:0.216094 8:0.00231985 
-0.0 -0.0 -0.0 -0.04137430653330185 -0.0 0.0 0.0 0.0 0.0 0.0 0.0 0.0 1:0.225255 2:0.0136008 3:-2.15634 4:0.105256 5:0.574372 6:0.158376 7:0.375819 8:0.013462 
-0.0 -0.0 -0.0 -1.0 -0.0 0.0 0.0 0.0 0.0 0.0 0.0 0.0 1:0.162292 2:0.00858728 3:-2.50568 4:0.120661 5:0.662516 6:0.266256 7:0.0490851 8:1.6426E-4 
-0.4137763508331683 -0.0 -0.0 -0.0 -0.0 0.0 0.0 0.0 0.0 0.0 0.0 0.0 1:0.218934 2:0.0139561 3:-2.15156 4:0.0933981 5:0.691116 6:0.16681 7:0.536144 8:0.0414344 
-0.0 -0.0 -0.0 -1.0 -0.0 0.0 0.0 0.0 0.0 0.0 0.0 0.0 1:0.20501 2:0.0115675 3:-2.38292 4:0.127877 5:1.36334 6:0.628651 7:0.0505929 8:5.73644E-4 
-0.0 -0.0 -0.0 -1.0 -0.0 0.0 0.0 0.0 0.0 0.0 0.0 0.0 1:0.267537 2:0.0187397 3:-2.28093 4:0.157572 5:0.896314 6:0.379159 7:0.273677 8:0.0194473 
-0.0 -0.0 -0.0 -0.0 -0.0 0.0 0.0 0.0 0.0 0.5575706868835222 0.0 0.0 1:0.295973 2:0.0199222 3:-1.82817 4:0.122184 5:0.603768 6:0.254227 7:0.671265 8:0.111084 
-1.0 -0.0 -0.0 -1.0 -0.5964784474932769 0.0 0.0 0.0 0.0 0.0 0.0 0.0 1:0.109682 2:0.00305253 3:-2.86042 4:0.0557998 5:0.957284 6:0.181129 7:0.221104 8:0.0060373 
-1.0 -0.0 -1.0 -1.0 -1.0 -1.0 0.0 1.0 0.0 0.0 0.0037046053009461835 0.0 1:0.0511172 2:0.00353843 3:-3.75323 4:0.0849121 5:2.09311 6:0.421821 7:0.110974 8:0.00351509 
-0.0 -0.0 -1.0 -0.0 -0.0 -0.0 0.07566277499570871 1.0 0.0 0.0 0.0 0.0 1:0.0255801 2:0.00181735 3:-4.18903 4:0.0769994 5:3.86018 6:0.703917 7:0.102767 8:0.0070417 
-0.8553526634690356 -1.0 -1.0 -1.0 -0.0 -1.0 7.952337652090569E-4 1.0 0.012414306152930519 1.0 0.9540290745789837 0.0 1:0.0615024 2:0.00828865 3:-3.55698 4:0.147075 5:2.29403 6:0.69645 7:0.149641 8:0.0130793 
-0.0 -0.0 -0.0 -0.0 -0.0 -0.0 0.0 0.0 0.0 1.0 0.0 0.0 1:0.0373287 2:0.00509832 3:-4.17138 4:0.145443 5:5.91985 6:1.6454 7:0.0731243 8:0.00949686 
-0.0 -0.0 -1.0 -0.0 -0.0 -0.0 0.0 1.0 0.185262767331581 0.0 0.0 0.0 1:0.0285133 2:0.00270995 3:-4.18658 4:0.104105 5:3.95756 6:0.810424 7:0.0529292 8:0.00145368 
-0.0 -0.0 -1.0 -0.0 -0.0 -0.0 0.0 0.0 0.0 0.0 0.0 0.0 1:0.0586113 2:0.00317722 3:-3.98176 4:0.0723305 5:4.71264 6:0.853812 7:0.0561022 8:0.00190075 
-0.04964501297118818 -0.0 -0.0 -0.07663469670262474 -0.0038123352110938273 -0.08180460658974405 0.0 0.0 0.0 0.0 0.0 0.0 1:0.0179117 2:0.00170977 3:-4.81551 4:0.0877017 5:11.526 6:1.9822 7:0.0386791 8:0.00338367 
-0.0 -0.3927044737558536 -1.0 -0.0 -0.0 -0.0 0.0 0.0 0.0 0.0 0.2632674834011273 0.07317883413925452 1:0.0814866 2:0.00395585 3:-3.54244 4:0.0686728 5:6.56586 6:1.43783 7:0.0520887 8:0.0031984 
-0.0 -0.0 -1.0 -0.0 -0.0 -0.0 0.0 0.0 0.0 0.9309087519432857 0.04783879725728612 0.0 1:0.0835747 2:0.00370854 3:-3.51185 4:0.0746229 5:5.27495 6:1.17894 7:0.0618613 8:0.00356367 
-0.12672597101429497 -0.0 -0.0 -0.18728210483754107 -0.0058975532242995215 -0.16908557693919757 0.0 0.2570172535149781 0.0 0.0 0.0 0.0 1:0.019593 2:8.54902E-4 3:-4.64446 4:0.0486444 5:7.65379 6:1.01202 7:0.0597209 8:0.00431501 
-0.0 -0.0469285582874373 -1.0 -1.0 -0.924787594905247 -1.0 0.36673634630442586 1.0 0.4750920542150031 0.25166833696982704 0.0 0.0 1:0.031286 2:0.00327999 3:-3.98981 4:0.110474 5:2.10341 6:0.53251 7:0.113847 8:0.00471605 
-1.0 -0.0 -1.0 -1.0 -1.0 -1.0 0.0 1.0 0.0 1.0 0.0 0.20152927961441544 1:0.0304399 2:0.00378454 3:-4.00393 4:0.138358 5:1.78578 6:0.503408 7:0.0682763 8:0.00137965 
-0.0 -0.22939514308194434 -1.0 -0.0 -0.0 -0.0 0.13198241175187764 1.0 1.0 0.0 0.0 0.0 1:0.0199282 2:0.00198138 3:-4.45818 4:0.0935589 5:3.93454 6:0.7747 7:0.06946 8:0.00263784 
-0.0 -0.0 -1.0 -0.0 -0.0 -0.0 0.0 1.0 1.0 0.0 0.0 0.0 1:0.0291132 2:0.00369774 3:-4.20879 4:0.138549 5:4.21079 6:1.0848 7:0.0476677 8:0.0015273 
-0.0 -1.0 -1.0 -0.0 -0.0 -0.0 0.0 0.1321280607399239 0.0 1.0 0.22488637067588807 0.0 1:0.128409 2:0.00733231 3:-3.52385 4:0.119449 5:5.38565 6:1.71568 7:0.0539813 8:0.00359184 
-0.0 -0.0 -0.5824785192923901 -0.0 -0.0 -0.0 0.0 0.0 0.0 0.0 0.0 0.0 1:0.0519638 2:0.00370437 3:-4.04571 4:0.113981 5:6.33595 6:1.57279 7:0.0486195 8:0.00271773 
-0.0 -0.0 -0.006753226205890917 -0.0 -0.0 -0.0 0.0 0.4682095225545735 0.0 0.0 0.0 0.0 1:0.0211071 2:0.00244787 3:-4.36572 4:0.102626 5:4.95828 6:1.07921 7:0.0738692 8:0.00484902 
-0.11059660077132104 -0.40953104033393567 -0.4597537992799438 -0.17249646660741438 -0.009983936823896047 -0.20665454203775574 0.0 0.41163349725868775 0.0 0.0 0.0 0.1840901513863415 1:0.0121107 2:0.00158846 3:-4.87319 4:0.126076 5:8.6091 6:2.26143 7:0.0446587 8:0.00412171 
-0.0 -0.0 -1.0 -0.0 -0.0 -0.0 0.0 1.0 0.0 0.0 0.0 0.13810483912715324 1:0.0175067 2:0.00160045 3:-4.47689 4:0.0883596 5:4.61124 6:0.973166 7:0.0621241 8:0.00268019 
-0.0 -0.0 -0.0 -0.0 -0.0 -0.0 0.0 0.5118324508492624 0.0 0.0 0.0 0.05217816475550754 1:0.0216325 2:0.00167502 3:-4.66092 4:0.0936014 5:10.9905 6:2.64927 7:0.0363606 8:0.00333672 
-0.26191184580524907 -0.665636622698161 -0.08310410335965326 -0.3974789303932648 -0.026405769132914442 -0.40341195799481794 0.0 0.0 0.0 0.3658261462236575 0.0 1.0 1:0.0115931 2:0.00185207 3:-4.94424 4:0.12099 5:12.2524 6:3.08809 7:0.038007 8:0.0056279 
-0.0 -0.0 -0.0 -0.0 -0.0 -0.0 0.0 0.0 0.2065605112298973 0.23608846417349572 0.0 0.1130563455661747 1:0.0197869 2:0.00389069 3:-4.55345 4:0.176455 5:5.85857 6:1.76007 7:0.0495331 8:0.00322729 
-0.06391311286476621 -1.0 -1.0 -0.09245109070910554 -0.012422129212510352 -0.06937324174372922 0.0 1.0 0.0 0.5184405545559279 0.0 0.2575818275166087 1:0.0341558 2:0.00338431 3:-4.26416 4:0.104844 5:8.69548 6:2.09905 7:0.0381763 8:0.00247552 
-0.0 -0.0 -1.0 -0.0 -0.0 -0.0 0.0 0.22742830435254813 0.0 0.0 0.0 0.0 1:0.0320492 2:0.0021393 3:-4.20093 4:0.0721971 5:4.14193 6:0.708486 7:0.0619126 8:0.00188505 
-0.0 -0.09309769625279467 -1.0 -0.918531954115531 -0.0 -1.0 0.0 0.0 0.0 0.6970677461338058 0.0 0.0 1:0.193862 2:0.00696762 3:-2.92827 4:0.071111 5:3.3174 6:0.679987 7:0.0860242 8:0.00343084 
-0.0 -1.0 -0.21720162825089814 -0.0 -0.0 -0.0 0.0 0.0 0.0 0.0 0.0 0.0 1:0.037137 2:0.00331802 3:-4.43536 4:0.120162 5:7.57361 6:1.98226 7:0.0434784 8:0.00298294 
-0.0 -0.38086626647058275 -1.0 -0.0 -0.0 -0.227812617450496 0.0 0.020503499727305738 0.0 1.0 0.8315032619170284 0.1534124027870168 1:0.280892 2:0.0068069 3:-2.66265 4:0.0672758 5:4.25839 6:1.03218 7:0.0479357 8:0.00141157 
-1.0 -0.7818401991192905 -1.0 -1.0 -1.0 -1.0 0.0 0.0 0.0 1.0 0.0 0.0 1:0.171308 2:0.00776132 3:-2.83429 4:0.0763101 5:2.07755 6:0.469886 7:0.0724889 8:0.00125442 
-0.0 -0.0 -0.6507087236112237 -0.0 -0.0 -0.0 0.0 0.0 0.03793196650018809 0.0 0.0 0.0 1:0.051553 2:0.00290216 3:-4.19632 4:0.0650681 5:7.00807 6:1.22068 7:0.0595206 8:0.00439139 
-0.0 -0.0 -0.0 -0.0 -0.0 -0.0 0.0 0.0 0.08273839457040019 0.0 0.0 0.0 1:0.0186162 2:0.00168005 3:-4.44766 4:0.0915527 5:5.09605 6:1.09728 7:0.069666 8:0.0045242 
-0.0 -0.0 -1.0 -0.0 -0.0 -1.0 0.4248232331827787 0.9712474110027205 0.0 0.0 0.5209640948250728 0.0 1:0.0728104 2:0.00539739 3:-3.39947 4:0.0642599 5:3.03058 6:0.568998 7:0.150701 8:0.0154167 
-1.0 -0.0 -1.0 -1.0 -0.016690681490038772 -1.0 0.0 0.0 0.0 0.0 0.1538063120436675 0.0 1:0.165708 2:0.00551707 3:-2.85652 4:0.0584987 5:2.37373 6:0.412344 7:0.102923 8:0.00293687 
-1.0 -1.0 -1.0 -1.0 -1.0 -1.0 0.0 0.0 0.0 1.0 0.0 0.3074261335514441 1:0.270844 2:0.0045507 3:-2.30212 4:0.0332142 5:1.54241 6:0.25861 7:0.0656779 8:6.38055E-4 
-1.0 -1.0 -1.0 -1.0 -1.0 -1.0 -1.0 1.0 1.0 1.0 1.0 1.0 1:0.0515501 2:0.0034147 3:-3.87341 4:0.0981551 5:2.86546 6:0.680266 7:0.0499506 8:0.0010316 
-1.0 -1.0 -1.0 -1.0 -1.0 -1.0 -1.0 -0.1559021343567556 0.0 1.0 1.0 0.0 1:0.0501761 2:0.00548071 3:-3.48689 4:0.104489 5:2.50425 6:0.679974 7:0.178679 8:0.0248172 
-0.0 -0.0 -1.0 -0.0 -0.0 -0.0 -1.0 -0.0 1.0 0.0 0.0 0.0 1:0.0256642 2:0.00258406 3:-4.26965 4:0.120331 5:3.99853 6:0.981652 7:0.049701 8:0.00151534 
-0.0 -0.0 -1.0 -1.0 -0.5705536605574136 -1.0 -1.0 -0.3444985936453059 0.8253888227520283 0.7970322344382801 0.0 0.0 1:0.029217 2:0.0044102 3:-4.06222 4:0.153547 5:2.57303 6:0.765867 7:0.0936008 8:0.00453904 
-0.0 -0.33960442955525083 -1.0 -0.0 -0.0 -0.0 -1.0 -0.0 0.8416662579758367 0.02614580834210518 0.0 0.0 1:0.0162924 2:0.00191252 3:-4.5305 4:0.11304 5:4.58667 6:1.0657 7:0.0613498 8:0.00294419 
-0.324780991942472 -1.0 -1.0 -0.41954572458420714 -0.2359096899515061 -0.4405567389899428 -1.0 -0.0 0.0 0.7010904385756529 0.015110796447554944 1.0 1:0.0429383 2:0.0033968 3:-4.30798 4:0.10509 5:9.70251 6:2.61668 7:0.035496 8:0.00269091 
-1.0 -0.7260170308599174 -1.0 -1.0 -1.0 -1.0 -1.0 -0.0 0.0 1.0 0.0 0.597243116735405 1:0.0282464 2:0.00281555 3:-4.01318 4:0.103712 5:1.7584 6:0.39647 7:0.0846655 8:0.0017586 
-0.662333636833358 -0.0 -1.0 -1.0 -1.0 -1.0 -1.0 -0.24666634556162542 0.0 0.0 0.0 0.0 1:0.0314073 2:0.00213778 3:-4.09532 4:0.0855935 5:2.4706 6:0.486286 7:0.0595001 8:0.00102494 
-0.0 -0.0 -1.0 -0.0 -0.0 -0.0 -1.0 -0.0 0.0 0.0 0.0 0.0 1:0.0197144 2:0.00140416 3:-4.44055 4:0.0733163 5:4.15035 6:0.698113 7:0.0744945 8:0.00301746 
-0.0 -1.0 -1.0 -0.0 -0.0 -1.0 -1.0 -0.21084589049322194 0.0 1.0 1.0 0.0 1:0.0942306 2:0.00333682 3:-3.60913 4:0.0842767 5:3.77399 6:0.932577 7:0.0818039 8:0.00476588 
-0.27730892863019785 -1.0 -1.0 -0.35854221519825685 -0.19353664949108026 -0.28572174615225876 -1.0 -0.0 0.013508927749428539 0.6136620230297314 0.15860444243787153 0.0 1:0.0291519 2:0.0015832 3:-4.42815 4:0.0649081 5:8.74768 6:1.57681 7:0.0461432 8:0.00326874 
-1.0 -1.0 -1.0 -1.0 -1.0 -1.0 -1.0 -0.0 0.0 1.0 0.4019765242182164 0.0 1:0.054069 2:0.00446062 3:-3.67944 4:0.0956865 5:2.00538 6:0.432855 7:0.0878409 8:0.00195115 
-0.0 -1.0 -1.0 -0.0 -0.0 -0.0 -1.0 -0.0 0.2794281079989663 1.0 0.42430823689635727 0.5175288894950556 1:0.0257426 2:0.00217354 3:-4.40119 4:0.086321 5:5.3581 6:1.06569 7:0.0536738 8:0.00225461 
-0.0 -0.0 -1.0 -0.0 -0.0 -0.056470903509151876 -1.0 -0.04208703594309114 0.0400078835237398 1.0 0.0 0.0 1:0.0480679 2:0.00431514 3:-4.03805 4:0.118979 5:3.80952 6:0.899336 7:0.0495894 8:0.00127274 
-0.3275916430249874 -1.0 -1.0 -0.2398759188981341 -0.36028898807305293 -0.7402121554805977 -1.0 -0.0 -1.0 1.0 1.0 0.7215258401807004 1:0.0340745 2:0.00344023 3:-4.33621 4:0.100246 5:5.13247 6:1.08618 7:0.0634311 8:0.00346192 
-1.0 -1.0 -1.0 -1.0 -1.0 -1.0 -1.0 -1.0 -1.0 1.0 1.0 0.7169902317809349 1:0.0268474 2:0.0066674 3:-4.16582 4:0.189769 5:2.94483 6:0.861259 7:0.0441912 8:0.00101218 
-0.4587021831261427 -1.0 -1.0 -1.0 -1.0 -1.0 -1.0 -0.0 -1.0 1.0 1.0 0.0 1:0.0165473 2:0.00252226 3:-4.44534 4:0.134965 5:3.7679 6:1.00631 7:0.0738086 8:0.00385149 
-1.0 -0.6639448140823941 -1.0 -1.0 -1.0 -1.0 -1.0 -0.0718274136721833 -1.0 -0.43949454622615847 0.47429563153934556 0.1318987040463229 1:0.0530344 2:0.00949868 3:-3.56862 4:0.156124 5:1.61465 6:0.442406 7:0.126027 8:0.0045308 
-0.5163107628716614 -0.10223349930098917 -1.0 -1.0 -0.7884355541174687 -1.0 -1.0 -0.0 -1.0 -0.2853585751047781 0.3560796270972525 0.0 1:0.135344 2:0.00855963 3:-2.95565 4:0.184935 5:3.76229 6:1.79492 7:0.0307537 8:9.33046E-4 
-0.0 -1.0 -1.0 -0.0 -0.0 -0.06851948480850477 -1.0 -0.02600933917488861 -1.0 -1.0 0.6007279253074964 0.14553943927696616 1:0.0801042 2:0.00903805 3:-3.74993 4:0.165594 5:4.52022 6:1.66774 7:0.0607984 8:0.00443192 
-1.0 -1.0 -1.0 -1.0 -1.0 -1.0 -1.0 -0.9021632471529282 -1.0 -1.0 1.0 0.17655114833115942 1:0.0636797 2:0.0044832 3:-3.47875 4:0.0949481 5:2.8425 6:0.881223 7:0.0429948 8:9.8791E-4 
-0.0 -1.0 -1.0 -0.0 -0.0 -0.0 -1.0 -0.0 -0.13793050438576948 -0.27514687866906345 0.0 0.0 1:0.0824382 2:0.00862696 3:-3.28322 4:0.168376 5:6.38467 6:3.11934 7:0.0329819 8:0.00220623 
-0.006262157105964467 -0.6699070894051378 -1.0 -0.7400421091146681 -0.0 -0.9975976527874233 -1.0 -0.0 -1.0 -0.0 0.0 0.19271700646827028 1:0.171292 2:0.0052729 3:-2.63349 4:0.0951801 5:3.86454 6:2.11133 7:0.0347512 8:0.00145912 
-0.0 -0.0 -1.0 -0.0 -0.0 -0.0 -1.0 -0.0 -0.0 -0.0 0.2163276982615703 0.0 1:0.152248 2:0.0047462 3:-2.71348 4:0.0917924 5:4.48636 6:2.25357 7:0.0355017 8:0.00170891 
-0.44550482609126896 -1.0 -1.0 -0.34884373140678515 -0.21156444588253132 -0.4374805631275631 -1.0 -0.0 -1.0 -0.0 0.1600161638472606 0.7304357516482939 1:0.113832 2:0.00758549 3:-3.1561 4:0.173399 5:6.55377 6:3.26127 7:0.0304365 8:0.00191897 
-1.0 -0.7763631309299696 -1.0 -1.0 -1.0 -1.0 -1.0 -0.0 -1.0 -0.0 0.19255295394707475 0.0 1:0.108258 2:0.00753173 3:-3.19771 4:0.103927 5:1.35919 6:0.3576 7:0.0595334 8:7.0838E-4 
-1.0 -1.0 -1.0 -1.0 -1.0 -1.0 -1.0 -0.0 -1.0 -0.0 0.0 0.5999826628826839 1:0.158205 2:0.0186964 3:-2.29403 4:0.104955 5:0.516261 6:0.113684 7:0.649029 8:0.0386518 
-1.0 -1.0 -1.0 -1.0 -1.0 -1.0 -1.0 -0.8617308368765735 -1.0 -1.0 -1.0 0.7843631680347976 1:0.107415 2:0.00378813 3:-3.44493 4:0.070477 5:2.59833 6:0.498461 7:0.0858699 8:0.00251342 
-0.5697201572511774 -1.0 -1.0 -1.0 -0.9181052888524206 -1.0 -1.0 -0.047460181018947806 -1.0 -1.0 -1.0 0.7904852750444703 1:0.190085 2:0.00481973 3:-2.81855 4:0.056047 5:5.48876 6:1.34375 7:0.033076 8:9.27225E-4 
-1.0 -1.0 -1.0 -1.0 -1.0 -1.0 -1.0 -0.09080898210447877 -1.0 -1.0 -1.0 0.0 1:0.10738 2:0.00655947 3:-3.23169 4:0.0986546 5:2.86147 6:0.852851 7:0.0721012 8:0.00252827 
-0.5672489639062422 -0.591014503027914 -0.8712895118360127 -0.656173130986536 -0.5961382331186221 -0.7030922841940882 -0.4805579784439166 -0.43232679089632003 -0.8104345355503783 -0.6207050870028142 -0.8513330544293436 -0.6814550381680301 1:0.0239 2:0.00852752 3:-4.44297 4:0.267687 5:13.5116 6:6.71886 7:0.0368274 8:0.0159728 
-0.6444317051173986 -1.0 -1.0 -0.7444267649192974 -0.6778786536479302 -0.7996922190320326 -1.0 -0.4920084988608799 -1.0 -0.7091700098153443 -1.0 -0.7780560498284459 1:0.0534998 2:0.0067316 3:-3.84385 4:0.175052 5:10.5635 6:5.19305 7:0.0281171 8:0.00307028 
-0.09841596728907505 -0.8806217248968466 -0.17842820292497297 -0.11363537367451576 -0.10372056464120818 -0.12310047074098923 -1.0 -0.07566471024280014 -0.3043374706800824 -0.10864097514347683 -0.12579165822435298 -0.11533735508279186 1:0.0452447 2:0.0121049 3:-4.06695 4:0.2207 5:13.5335 6:5.92063 7:0.0275976 8:0.00399887 
